<?xml version="1.0"?>
<opencv_storage>
<cascade>
  <stageType>BOOST</stageType>
  <featureType>HAAR</featureType>
  <height>20</height>
  <width>20</width>
  <stageParams>
    <boostType>GAB</boostType>
    <minHitRate>9.9500000476837158e-01</minHitRate>
    <maxFalseAlarm>5.0000000000000000e-01</maxFalseAlarm>
    <weightTrimRate>9.4999999999999996e-01</weightTrimRate>
    <maxDepth>1</maxDepth>
    <maxWeakCount>100</maxWeakCount></stageParams>
  <featureParams>
    <maxCatCount>0</maxCatCount>
    <featSize>1</featSize>
    <mode>BASIC</mode></featureParams>
  <stageNum>3</stageNum>
  <stages>
    <!-- stage 0 -->
    <_>
      <maxWeakCount>11</maxWeakCount>
      <stageThreshold>-5.4392868280410767e-01</stageThreshold>
      <weakClassifiers>
        <_>
          <internalNodes>
            0 -1 5 -5.2973423153162003e-02</internalNodes>
          <leafValues>
            8.2159626483917236e-01 6.4599484205245972e-02</leafValues></_>
        <_>
          <internalNodes>
            0 -1 20 2.4913094937801361e-02</internalNodes>
          <leafValues>
            2.3667326569557190e-01 -6.9582492113113403e-01</leafValues></_>
        <_>
          <internalNodes>
            0 -1 26 -1.1391252279281616e-02</internalNodes>
          <leafValues>
            -8.0158072710037231e-01 1.4144751429557800e-01</leafValues></_>
        <_>
          <internalNodes>
            0 -1 9 1.3322454690933228e-01</internalNodes>
          <leafValues>
            -1.5545035898685455e-01 8.5448032617568970e-01</leafValues></_>
        <_>
          <internalNodes>
            0 -1 2 -1.0311029106378555e-01</internalNodes>
          <leafValues>
            6.5020382404327393e-01 -2.2267132997512817e-01</leafValues></_>
        <_>
          <internalNodes>
            0 -1 16 -3.3114660531282425e-02</internalNodes>
          <leafValues>
            -8.5807752609252930e-01 1.7406131327152252e-01</leafValues></_>
        <_>
          <internalNodes>
            0 -1 29 -7.4540066998451948e-04</internalNodes>
          <leafValues>
            -5.9482127428054810e-01 1.4974579215049744e-01</leafValues></_>
        <_>
          <internalNodes>
            0 -1 24 5.5460128933191299e-03</internalNodes>
          <leafValues>
            1.9098107516765594e-01 -5.5584084987640381e-01</leafValues></_>
        <_>
          <internalNodes>
            0 -1 17 3.5226609557867050e-02</internalNodes>
          <leafValues>
            1.1529186367988586e-01 -7.4846696853637695e-01</leafValues></_>
        <_>
          <internalNodes>
            0 -1 31 -7.3704868555068970e-02</internalNodes>
          <leafValues>
            -8.3647954463958740e-01 1.2476671487092972e-01</leafValues></_>
        <_>
          <internalNodes>
            0 -1 25 8.9717254741117358e-04</internalNodes>
          <leafValues>
            -3.2711255550384521e-01 3.1594613194465637e-01</leafValues></_></weakClassifiers></_>
    <!-- stage 1 -->
    <_>
      <maxWeakCount>19</maxWeakCount>
      <stageThreshold>-7.8954708576202393e-01</stageThreshold>
      <weakClassifiers>
        <_>
          <internalNodes>
            0 -1 13 -2.8841301798820496e-02</internalNodes>
          <leafValues>
            7.3140496015548706e-01 6.4245812594890594e-02</leafValues></_>
        <_>
          <internalNodes>
            0 -1 33 2.8528962866403162e-04</internalNodes>
          <leafValues>
            -2.4687424302101135e-01 3.9095783233642578e-01</leafValues></_>
        <_>
          <internalNodes>
            0 -1 10 4.8440485261380672e-03</internalNodes>
          <leafValues>
            -1.6568042337894440e-01 5.4000496864318848e-01</leafValues></_>
        <_>
          <internalNodes>
            0 -1 27 -3.0769249424338341e-03</internalNodes>
          <leafValues>
            4.7642809152603149e-01 -2.3118132352828979e-01</leafValues></_>
        <_>
          <internalNodes>
            0 -1 21 3.9035230875015259e-02</internalNodes>
          <leafValues>
            1.3575612008571625e-01 -8.2598584890365601e-01</leafValues></_>
        <_>
          <internalNodes>
            0 -1 30 1.1102396820206195e-04</internalNodes>
          <leafValues>
            -3.8712528347969055e-01 2.1803179383277893e-01</leafValues></_>
        <_>
          <internalNodes>
            0 -1 39 3.2056234776973724e-02</internalNodes>
          <leafValues>
            -1.1888318508863449e-01 7.2227841615676880e-01</leafValues></_>
        <_>
          <internalNodes>
            0 -1 7 -3.1481082551181316e-03</internalNodes>
          <leafValues>
            6.3030987977981567e-01 -1.2851572036743164e-01</leafValues></_>
        <_>
          <internalNodes>
            0 -1 41 -5.0836053560487926e-05</internalNodes>
          <leafValues>
            3.1991949677467346e-01 -2.8003239631652832e-01</leafValues></_>
        <_>
          <internalNodes>
            0 -1 8 1.1597175151109695e-01</internalNodes>
          <leafValues>
            1.1642918735742569e-01 -8.2693284749984741e-01</leafValues></_>
        <_>
          <internalNodes>
            0 -1 22 -2.0302490156609565e-04</internalNodes>
          <leafValues>
            -4.2547407746315002e-01 1.8640936911106110e-01</leafValues></_>
        <_>
          <internalNodes>
            0 -1 15 1.0592250619083643e-03</internalNodes>
          <leafValues>
            -1.8632024526596069e-01 4.2680725455284119e-01</leafValues></_>
        <_>
          <internalNodes>
            0 -1 38 -2.4706870317459106e-02</internalNodes>
          <leafValues>
            6.1021572351455688e-01 -1.4816124737262726e-01</leafValues></_>
        <_>
          <internalNodes>
            0 -1 14 1.4214987866580486e-02</internalNodes>
          <leafValues>
            -1.5092456340789795e-01 5.0949114561080933e-01</leafValues></_>
        <_>
          <internalNodes>
            0 -1 11 -5.7963259518146515e-02</internalNodes>
          <leafValues>
            1.1813665181398392e-01 -7.8461903333663940e-01</leafValues></_>
        <_>
          <internalNodes>
            0 -1 23 -5.9241369366645813e-02</internalNodes>
          <leafValues>
            -5.9547704458236694e-01 1.1601189523935318e-01</leafValues></_>
        <_>
          <internalNodes>
            0 -1 36 -2.1379727870225906e-02</internalNodes>
          <leafValues>
            7.1189051866531372e-01 -1.1784795671701431e-01</leafValues></_>
        <_>
          <internalNodes>
            0 -1 34 4.2840820970013738e-04</internalNodes>
          <leafValues>
            1.7112368345260620e-01 -5.1449602842330933e-01</leafValues></_>
        <_>
          <internalNodes>
            0 -1 4 8.5504665970802307e-02</internalNodes>
          <leafValues>
            -1.4924070239067078e-01 5.1422160863876343e-01</leafValues></_></weakClassifiers></_>
    <!-- stage 2 -->
    <_>
      <maxWeakCount>12</maxWeakCount>
      <stageThreshold>-6.7619407176971436e-01</stageThreshold>
      <weakClassifiers>
        <_>
          <internalNodes>
            0 -1 3 6.8589538335800171e-01</internalNodes>
          <leafValues>
            4.5772057771682739e-01 -8.7500000000000000e-01</leafValues></_>
        <_>
          <internalNodes>
            0 -1 6 -1.0575307905673981e-01</internalNodes>
          <leafValues>
            -7.6851242780685425e-01 2.0298825204372406e-01</leafValues></_>
        <_>
          <internalNodes>
            0 -1 0 9.9558392539620399e-03</internalNodes>
          <leafValues>
            -3.0037128925323486e-01 4.7784331440925598e-01</leafValues></_>
        <_>
          <internalNodes>
            0 -1 35 -9.7310049459338188e-03</internalNodes>
          <leafValues>
            6.0738772153854370e-01 -2.0578433573246002e-01</leafValues></_>
        <_>
          <internalNodes>
            0 -1 28 8.0589909339323640e-04</internalNodes>
          <leafValues>
            -3.1621998548507690e-01 3.9782476425170898e-01</leafValues></_>
        <_>
          <internalNodes>
            0 -1 18 -1.0624827817082405e-02</internalNodes>
          <leafValues>
            4.7940391302108765e-01 -2.3838773369789124e-01</leafValues></_>
        <_>
          <internalNodes>
            0 -1 19 3.1578651396557689e-04</internalNodes>
          <leafValues>
            -2.7787083387374878e-01 4.0532279014587402e-01</leafValues></_>
        <_>
          <internalNodes>
            0 -1 12 3.5357110202312469e-02</internalNodes>
          <leafValues>
            -1.3515146076679230e-01 6.8879443407058716e-01</leafValues></_>
        <_>
          <internalNodes>
            0 -1 32 -2.6570109184831381e-03</internalNodes>
          <leafValues>
            4.7720384597778320e-01 -2.4994368851184845e-01</leafValues></_>
        <_>
          <internalNodes>
            0 -1 37 -4.3144752271473408e-04</internalNodes>
          <leafValues>
            5.0662529468536377e-01 -2.6874345541000366e-01</leafValues></_>
        <_>
          <internalNodes>
            0 -1 1 4.9372296780347824e-03</internalNodes>
          <leafValues>
            -1.4898604154586792e-01 5.5993509292602539e-01</leafValues></_>
        <_>
          <internalNodes>
            0 -1 40 -4.8163831233978271e-02</internalNodes>
          <leafValues>
            -5.8755892515182495e-01 1.9521234929561615e-01</leafValues></_></weakClassifiers></_></stages>
  <features>
    <_>
      <rects>
        <_>
          0 4 16 4 -1.</_>
        <_>
          0 4 8 2 2.</_>
        <_>
          8 6 8 2 2.</_></rects>
      <tilted>0</tilted></_>
    <_>
      <rects>
        <_>
          0 8 2 12 -1.</_>
        <_>
          0 8 1 6 2.</_>
        <_>
          1 14 1 6 2.</_></rects>
      <tilted>0</tilted></_>
    <_>
      <rects>
        <_>
          0 10 19 8 -1.</_>
        <_>
          0 14 19 4 2.</_></rects>
      <tilted>0</tilted></_>
    <_>
      <rects>
        <_>
          1 0 19 20 -1.</_>
        <_>
          1 10 19 10 2.</_></rects>
      <tilted>0</tilted></_>
    <_>
      <rects>
        <_>
          1 9 10 10 -1.</_>
        <_>
          1 14 10 5 2.</_></rects>
      <tilted>0</tilted></_>
    <_>
      <rects>
        <_>
          2 0 17 6 -1.</_>
        <_>
          2 3 17 3 2.</_></rects>
      <tilted>0</tilted></_>
    <_>
      <rects>
        <_>
          2 10 15 1 -1.</_>
        <_>
          7 10 5 1 2.</_></rects>
      <tilted>0</tilted></_>
    <_>
      <rects>
        <_>
          3 5 3 2 -1.</_>
        <_>
          3 6 3 1 2.</_></rects>
      <tilted>0</tilted></_>
    <_>
      <rects>
        <_>
          3 6 14 7 -1.</_>
        <_>
          10 6 7 7 2.</_></rects>
      <tilted>0</tilted></_>
    <_>
      <rects>
        <_>
          3 10 16 8 -1.</_>
        <_>
          3 14 16 4 2.</_></rects>
      <tilted>0</tilted></_>
    <_>
      <rects>
        <_>
          4 7 12 2 -1.</_>
        <_>
          4 7 6 1 2.</_>
        <_>
          10 8 6 1 2.</_></rects>
      <tilted>0</tilted></_>
    <_>
      <rects>
        <_>
          4 9 12 4 -1.</_>
        <_>
          8 9 4 4 2.</_></rects>
      <tilted>0</tilted></_>
    <_>
      <rects>
        <_>
          4 13 14 4 -1.</_>
        <_>
          4 15 14 2 2.</_></rects>
      <tilted>0</tilted></_>
    <_>
      <rects>
        <_>
          5 0 9 6 -1.</_>
        <_>
          5 3 9 3 2.</_></rects>
      <tilted>0</tilted></_>
    <_>
      <rects>
        <_>
          5 4 12 4 -1.</_>
        <_>
          5 4 6 2 2.</_>
        <_>
          11 6 6 2 2.</_></rects>
      <tilted>0</tilted></_>
    <_>
      <rects>
        <_>
          6 5 2 2 -1.</_>
        <_>
          6 6 2 1 2.</_></rects>
      <tilted>0</tilted></_>
    <_>
      <rects>
        <_>
          6 6 6 6 -1.</_>
        <_>
          9 6 3 6 2.</_></rects>
      <tilted>0</tilted></_>
    <_>
      <rects>
        <_>
          7 9 10 4 -1.</_>
        <_>
          12 9 5 4 2.</_></rects>
      <tilted>0</tilted></_>
    <_>
      <rects>
        <_>
          8 0 2 8 -1.</_>
        <_>
          8 4 2 4 2.</_></rects>
      <tilted>0</tilted></_>
    <_>
      <rects>
        <_>
          8 3 1 2 -1.</_>
        <_>
          8 4 1 1 2.</_></rects>
      <tilted>0</tilted></_>
    <_>
      <rects>
        <_>
          8 3 6 5 -1.</_>
        <_>
          11 3 3 5 2.</_></rects>
      <tilted>0</tilted></_>
    <_>
      <rects>
        <_>
          8 4 5 8 -1.</_>
        <_>
          8 8 5 4 2.</_></rects>
      <tilted>0</tilted></_>
    <_>
      <rects>
        <_>
          8 9 2 2 -1.</_>
        <_>
          9 9 1 2 2.</_></rects>
      <tilted>0</tilted></_>
    <_>
      <rects>
        <_>
          9 1 2 6 -1.</_>
        <_>
          9 3 2 2 2.</_></rects>
      <tilted>0</tilted></_>
    <_>
      <rects>
        <_>
          9 4 1 10 -1.</_>
        <_>
          9 9 1 5 2.</_></rects>
      <tilted>0</tilted></_>
    <_>
      <rects>
        <_>
          9 4 4 2 -1.</_>
        <_>
          9 5 4 1 2.</_></rects>
      <tilted>0</tilted></_>
    <_>
      <rects>
        <_>
          9 5 2 8 -1.</_>
        <_>
          9 9 2 4 2.</_></rects>
      <tilted>0</tilted></_>
    <_>
      <rects>
        <_>
          9 12 8 2 -1.</_>
        <_>
          9 13 8 1 2.</_></rects>
      <tilted>0</tilted></_>
    <_>
      <rects>
        <_>
          10 3 1 4 -1.</_>
        <_>
          10 5 1 2 2.</_></rects>
      <tilted>0</tilted></_>
    <_>
      <rects>
        <_>
          10 4 2 1 -1.</_>
        <_>
          11 4 1 1 2.</_></rects>
      <tilted>0</tilted></_>
    <_>
      <rects>
        <_>
          10 4 1 2 -1.</_>
        <_>
          10 5 1 1 2.</_></rects>
      <tilted>0</tilted></_>
    <_>
      <rects>
        <_>
          10 6 8 8 -1.</_>
        <_>
          14 6 4 8 2.</_></rects>
      <tilted>0</tilted></_>
    <_>
      <rects>
        <_>
          10 8 4 3 -1.</_>
        <_>
          12 8 2 3 2.</_></rects>
      <tilted>0</tilted></_>
    <_>
      <rects>
        <_>
          10 10 2 2 -1.</_>
        <_>
          10 11 2 1 2.</_></rects>
      <tilted>0</tilted></_>
    <_>
      <rects>
        <_>
          11 5 2 1 -1.</_>
        <_>
          12 5 1 1 2.</_></rects>
      <tilted>0</tilted></_>
    <_>
      <rects>
        <_>
          13 4 5 4 -1.</_>
        <_>
          13 6 5 2 2.</_></rects>
      <tilted>0</tilted></_>
    <_>
      <rects>
        <_>
          13 5 6 4 -1.</_>
        <_>
          13 7 6 2 2.</_></rects>
      <tilted>0</tilted></_>
    <_>
      <rects>
        <_>
          14 9 1 2 -1.</_>
        <_>
          14 10 1 1 2.</_></rects>
      <tilted>0</tilted></_>
    <_>
      <rects>
        <_>
          15 2 5 6 -1.</_>
        <_>
          15 5 5 3 2.</_></rects>
      <tilted>0</tilted></_>
    <_>
      <rects>
        <_>
          15 11 4 6 -1.</_>
        <_>
          15 14 4 3 2.</_></rects>
      <tilted>0</tilted></_>
    <_>
      <rects>
        <_>
          16 11 1 9 -1.</_>
        <_>
          16 14 1 3 2.</_></rects>
      <tilted>0</tilted></_>
    <_>
      <rects>
        <_>
          16 13 1 2 -1.</_>
        <_>
          16 14 1 1 2.</_></rects>
      <tilted>0</tilted></_></features></cascade>
</opencv_storage>
